booster[0]:
0:[f7<-0.280825138] yes=1,no=2,missing=1
	1:[f5<-0.562859535] yes=3,no=4,missing=3
		3:[f6<-0.568426311] yes=7,no=8,missing=7
			7:leaf=-0.599992931
			8:leaf=-0.49302277
		4:[f5<-0.55155164] yes=9,no=10,missing=9
			9:leaf=0.467546821
			10:leaf=-0.429398328
	2:[f8<0.823675931] yes=5,no=6,missing=5
		5:[f6<-0.477403939] yes=11,no=12,missing=11
			11:leaf=-0.396028847
			12:leaf=0.402962685
		6:[f5<2.86869907] yes=13,no=14,missing=13
			13:leaf=-0.575420558
			14:leaf=0.599791288
booster[1]:
0:[f7<-0.30165869] yes=1,no=2,missing=1
	1:[f4<-0.567057133] yes=3,no=4,missing=3
		3:leaf=-0.464773327
		4:[f8<0.28369987] yes=7,no=8,missing=7
			7:leaf=-0.162154168
			8:leaf=-0.459938109
	2:[f8<0.834608555] yes=5,no=6,missing=5
		5:[f4<-0.468252301] yes=9,no=10,missing=9
			9:leaf=-0.350871027
			10:leaf=0.288261652
		6:[f5<2.86869907] yes=11,no=12,missing=11
			11:leaf=-0.456945181
			12:leaf=0.464488596
booster[2]:
0:[f5<-0.464945465] yes=1,no=2,missing=1
	1:[f9<-0.197111115] yes=3,no=4,missing=3
		3:[f4<-0.567057192] yes=7,no=8,missing=7
			7:leaf=-0.404914707
			8:leaf=-0.465609968
		4:[f8<0.0897073299] yes=9,no=10,missing=9
			9:leaf=0.148813978
			10:leaf=-0.334784359
	2:[f8<-0.0544189848] yes=5,no=6,missing=5
		5:[f6<0.251496434] yes=11,no=12,missing=11
			11:leaf=0.449378818
			12:leaf=-0.039236933
		6:[f5<2.86869907] yes=13,no=14,missing=13
			13:leaf=-0.195209309
			14:leaf=0.439249426
booster[3]:
0:[f7<-0.322486162] yes=1,no=2,missing=1
	1:[f4<-0.567057133] yes=3,no=4,missing=3
		3:[f6<-0.600802898] yes=7,no=8,missing=7
			7:leaf=-0.384905159
			8:leaf=-0.369293064
		4:[f6<-0.546621084] yes=9,no=10,missing=9
			9:leaf=0.0444848612
			10:leaf=-0.28394872
	2:[f10<0.831805706] yes=5,no=6,missing=5
		5:[f6<-0.458199561] yes=11,no=12,missing=11
			11:leaf=-0.203962699
			12:leaf=0.214454085
		6:[f5<2.86869907] yes=13,no=14,missing=13
			13:leaf=-0.367504537
			14:leaf=0.367134631
booster[4]:
0:[f5<-0.562120259] yes=1,no=2,missing=1
	1:[f9<0.108268902] yes=3,no=4,missing=3
		3:[f4<-0.567057133] yes=7,no=8,missing=7
			7:leaf=-0.354914308
			8:leaf=-0.40227443
		4:[f6<-0.568783343] yes=9,no=10,missing=9
			9:leaf=-0.351073176
			10:leaf=1.06196725
	2:[f8<0.286840856] yes=5,no=6,missing=5
		5:[f1<-0.724094927] yes=11,no=12,missing=11
			11:leaf=-0.0947584361
			12:leaf=0.198837176
		6:[f7<0.104858533] yes=13,no=14,missing=13
			13:leaf=-0.261093825
			14:leaf=0.0541632287
booster[5]:
0:[f5<-0.473791927] yes=1,no=2,missing=1
	1:[f9<-0.197111115] yes=3,no=4,missing=3
		3:[f4<-0.567057192] yes=7,no=8,missing=7
			7:leaf=-0.335377693
			8:leaf=-0.382383674
		4:[f10<0.292691112] yes=9,no=10,missing=9
			9:leaf=0.0569108389
			10:leaf=-0.347558677
	2:[f10<0.844270825] yes=5,no=6,missing=5
		5:[f8<0.471513927] yes=11,no=12,missing=11
			11:leaf=0.0430555455
			12:leaf=0.422737479
		6:[f5<2.86869907] yes=13,no=14,missing=13
			13:leaf=-0.348443717
			14:leaf=0.34346962
booster[6]:
0:[f4<-0.558264494] yes=1,no=2,missing=1
	1:[f6<-0.568426311] yes=3,no=4,missing=3
		3:[f7<3.8314209] yes=7,no=8,missing=7
			7:leaf=-0.333778113
			8:leaf=0.613534093
		4:[f8<-0.324452639] yes=9,no=10,missing=9
			9:leaf=-0.350271106
			10:leaf=0.533974469
	2:[f10<0.803759277] yes=5,no=6,missing=5
		5:[f7<-0.343311608] yes=11,no=12,missing=11
			11:leaf=-0.113560542
			12:leaf=0.11807356
		6:[f11<1.84485698] yes=13,no=14,missing=13
			13:leaf=-0.275711209
			14:leaf=1.31163657
booster[7]:
0:[f4<-0.558264494] yes=1,no=2,missing=1
	1:[f6<-0.568426311] yes=3,no=4,missing=3
		3:[f7<3.8314209] yes=7,no=8,missing=7
			7:leaf=-0.324381292
			8:leaf=0.311852664
		4:[f10<-0.33056277] yes=9,no=10,missing=9
			9:leaf=-0.337131858
			10:leaf=0.411254466
	2:[f6<-0.546621084] yes=5,no=6,missing=5
		5:[f10<-0.0781449527] yes=11,no=12,missing=11
			11:leaf=-0.346356958
			12:leaf=0.498128802
		6:[f7<-0.348518968] yes=13,no=14,missing=13
			13:leaf=-0.240130365
			14:leaf=0.0260701738
booster[8]:
0:[f4<-0.558264494] yes=1,no=2,missing=1
	1:[f6<-0.568426311] yes=3,no=4,missing=3
		3:[f7<3.8314209] yes=7,no=8,missing=7
			7:leaf=-0.317726046
			8:leaf=0.199062124
		4:[f10<-0.33056277] yes=9,no=10,missing=9
			9:leaf=-0.327351421
			10:leaf=0.336635828
	2:[f8<0.837700844] yes=5,no=6,missing=5
		5:[f6<-0.546621084] yes=11,no=12,missing=11
			11:leaf=0.353290081
			12:leaf=0.009181167
		6:[f5<2.86869907] yes=13,no=14,missing=13
			13:leaf=-0.311986685
			14:leaf=0.339026898
booster[9]:
0:[f4<-0.410726696] yes=1,no=2,missing=1
	1:[f9<-0.203343362] yes=3,no=4,missing=3
		3:[f4<-0.429456413] yes=7,no=8,missing=7
			7:leaf=-0.361672461
			8:leaf=-1.42688918
		4:[f8<0.0928483158] yes=9,no=10,missing=9
			9:leaf=0.236916989
			10:leaf=-0.127678111
	2:[f10<-0.131121531] yes=5,no=6,missing=5
		5:[f6<0.251496434] yes=11,no=12,missing=11
			11:leaf=0.438099235
			12:leaf=-0.0840584859
		6:[f5<2.86869907] yes=13,no=14,missing=13
			13:leaf=-0.130714178
			14:leaf=0.348907351
