booster[0]:
0:[f8<-0.280825138] yes=1,no=2,missing=1
	1:[f17<-1.07970583] yes=3,no=4,missing=3
		3:[f6<-0.564213872] yes=7,no=8,missing=7
			7:leaf=-0.595660806
			8:leaf=0.264875919
		4:[f20<-1.20705044] yes=9,no=10,missing=9
			9:leaf=-0.177588969
			10:leaf=-0.547040105
	2:[f10<0.823675931] yes=5,no=6,missing=5
		5:[f7<-0.477403939] yes=11,no=12,missing=11
			11:leaf=-0.396028847
			12:leaf=0.402962685
		6:[f6<2.86869907] yes=13,no=14,missing=13
			13:leaf=-0.575420558
			14:leaf=0.599791288
booster[1]:
0:[f9<-0.0725570917] yes=1,no=2,missing=1
	1:[f17<-1.05833411] yes=3,no=4,missing=3
		3:[f6<-0.563981295] yes=7,no=8,missing=7
			7:leaf=-0.465017945
			8:leaf=0.169070348
		4:[f22<-1.42320228] yes=9,no=10,missing=9
			9:leaf=0.444851607
			10:leaf=-0.411379486
	2:[f10<0.825234294] yes=5,no=6,missing=5
		5:[f25<0.332614213] yes=11,no=12,missing=11
			11:leaf=0.344357818
			12:leaf=-0.14633809
		6:[f6<2.86869907] yes=13,no=14,missing=13
			13:leaf=-0.441840678
			14:leaf=0.464500248
booster[2]:
0:[f6<-0.464479804] yes=1,no=2,missing=1
	1:[f17<-1.1224494] yes=3,no=4,missing=3
		3:[f11<-0.197111115] yes=7,no=8,missing=7
			7:leaf=-0.470793277
			8:leaf=0.312018216
		4:[f21<-1.29950917] yes=9,no=10,missing=9
			9:leaf=-0.129572734
			10:leaf=-0.412212282
	2:[f10<-0.0544189848] yes=5,no=6,missing=5
		5:[f7<0.251496434] yes=11,no=12,missing=11
			11:leaf=0.467028111
			12:leaf=-0.00503432145
		6:[f15<1.05059159] yes=13,no=14,missing=13
			13:leaf=-0.271057099
			14:leaf=0.297114879
booster[3]:
0:[f6<-0.464945465] yes=1,no=2,missing=1
	1:[f17<-0.972847104] yes=3,no=4,missing=3
		3:[f5<-0.559305906] yes=7,no=8,missing=7
			7:leaf=-0.377994984
			8:leaf=0.31313777
		4:[f21<-1.29950917] yes=9,no=10,missing=9
			9:leaf=-0.0956750959
			10:leaf=-0.377858907
	2:[f12<0.844270825] yes=5,no=6,missing=5
		5:[f15<0.311494559] yes=11,no=12,missing=11
			11:leaf=-0.04500404
			12:leaf=0.395635039
		6:[f6<2.86869907] yes=13,no=14,missing=13
			13:leaf=-0.394671082
			14:leaf=0.383525103
booster[4]:
0:[f5<-0.410726696] yes=1,no=2,missing=1
	1:[f22<-0.904552996] yes=3,no=4,missing=3
		3:[f11<-0.178414375] yes=7,no=8,missing=7
			7:leaf=-0.413278788
			8:leaf=0.40411815
		4:[f17<-0.972847104] yes=9,no=10,missing=9
			9:leaf=-0.0349254757
			10:leaf=-0.369564056
	2:[f11<-0.00391151058] yes=5,no=6,missing=5
		5:[f7<0.19675386] yes=11,no=12,missing=11
			11:leaf=0.443430871
			12:leaf=0.0332799926
		6:[f16<-0.482317805] yes=13,no=14,missing=13
			13:leaf=-0.363678098
			14:leaf=0.0610890351
booster[5]:
0:[f5<-0.410726696] yes=1,no=2,missing=1
	1:[f22<-0.87404418] yes=3,no=4,missing=3
		3:[f12<-0.0781449527] yes=7,no=8,missing=7
			7:leaf=-0.366987169
			8:leaf=0.293433279
		4:[f17<-0.994218826] yes=9,no=10,missing=9
			9:leaf=-0.0297248419
			10:leaf=-0.351878941
	2:[f10<0.837700844] yes=5,no=6,missing=5
		5:[f15<0.311743498] yes=11,no=12,missing=11
			11:leaf=-0.0160234775
			12:leaf=0.385778457
		6:[f6<2.86869907] yes=13,no=14,missing=13
			13:leaf=-0.355450183
			14:leaf=0.353573769
booster[6]:
0:[f25<0.353140593] yes=1,no=2,missing=1
	1:[f6<0.0892590433] yes=3,no=4,missing=3
		3:[f26<-0.304477215] yes=7,no=8,missing=7
			7:leaf=-0.246945515
			8:leaf=0.0601229109
		4:[f12<0.856735885] yes=9,no=10,missing=9
			9:leaf=0.358628243
			10:leaf=-0.262286723
	2:[f6<2.86869907] yes=5,no=6,missing=5
		5:[f7<0.213627115] yes=11,no=12,missing=11
			11:leaf=-0.174013108
			12:leaf=-0.430455655
		6:[f15<1.05043316] yes=13,no=14,missing=13
			13:leaf=0.417514145
			14:leaf=0.372372091
booster[7]:
0:[f5<-0.567057133] yes=1,no=2,missing=1
	1:[f6<-0.205112249] yes=3,no=4,missing=3
		3:[f9<0.320290655] yes=7,no=8,missing=7
			7:leaf=-0.335398436
			8:leaf=0.2379978
		4:leaf=1.71576428
	2:[f28<-0.672212005] yes=5,no=6,missing=5
		5:[f25<-0.579836607] yes=9,no=10,missing=9
			9:leaf=-0.100067668
			10:leaf=-0.300248921
		6:[f25<0.321189761] yes=11,no=12,missing=11
			11:leaf=0.157542676
			12:leaf=-0.139412731
booster[8]:
0:[f5<-0.567057133] yes=1,no=2,missing=1
	1:[f9<0.320290655] yes=3,no=4,missing=3
		3:[f17<-1.20793629] yes=7,no=8,missing=7
			7:leaf=-0.372203797
			8:leaf=-0.321963161
		4:[f0<-0.375860393] yes=9,no=10,missing=9
			9:leaf=-0.544385374
			10:leaf=0.569516659
	2:[f10<0.286755651] yes=5,no=6,missing=5
		5:[f27<-0.457190663] yes=11,no=12,missing=11
			11:leaf=0.344619632
			12:leaf=-0.0131846974
		6:[f27<-2.14940357] yes=13,no=14,missing=13
			13:leaf=0.408734083
			14:leaf=-0.206567004
booster[9]:
0:[f5<-0.567057133] yes=1,no=2,missing=1
	1:[f9<0.320290655] yes=3,no=4,missing=3
		3:[f6<-0.20697625] yes=7,no=8,missing=7
			7:leaf=-0.31938839
			8:leaf=0.536616266
		4:[f0<-0.375860393] yes=9,no=10,missing=9
			9:leaf=-0.426472813
			10:leaf=0.446644515
	2:[f21<-0.0223537292] yes=5,no=6,missing=5
		5:[f15<0.311404049] yes=11,no=12,missing=11
			11:leaf=-0.261504978
			12:leaf=0.100897469
		6:[f6<-0.307506233] yes=13,no=14,missing=13
			13:leaf=-0.164733887
			14:leaf=0.24124679
